Language model created by QuickLM on Thu Apr 10 08:50:13 EDT 2014
Copyright (c) 1996-2010 Carnegie Mellon University and Alexander I. Rudnicky

The model is in standard ARPA format, designed by Doug Paul while he was at MITRE.

The code that was used to produce this language model is available in Open Source.
Please visit http://www.speech.cs.cmu.edu/tools/ for more information

The (fixed) discount mass is 0.5. The backoffs are computed using the ratio method.
This model based on a corpus of 28 sentences and 38 words

\data\
ngram 1=38
ngram 2=63
ngram 3=86

\1-grams:
-1.1782 </s> -0.3010
-1.1782 <s> -0.2712
-2.6253 ABORT -0.2734
-2.6253 BASIC -0.2959
-2.1482 BATHROOM -0.2690
-2.1482 BEDROOM -0.2690
-2.6253 BEER -0.2734
-2.6253 CHOCOLATE -0.2734
-2.6253 CLEANER -0.2734
-2.6253 COOKIES -0.2734
-2.6253 CRACKERS -0.2734
-2.6253 CUP -0.2734
-2.6253 FREE -0.2959
-2.0233 GO -0.2927
-1.7802 GRASP -0.2810
-2.6253 GRASPING -0.2959
-2.0233 IN -0.2969
-2.0233 IS -0.2810
-2.1482 KITCHEN -0.2690
-2.1482 LIVING -0.2979
-2.0233 MAP -0.2734
-2.6253 MILK -0.2734
-2.6253 MIRROR -0.2959
-1.9263 MODE -0.2734
-2.0233 MOVE -0.2927
-1.2103 MYRABOT -0.2734
-2.6253 NAVIGATION -0.2959
-2.6253 NO -0.2712
-1.2103 PLEASE -0.2712
-2.1482 ROOM -0.2690
-2.0233 SAVE -0.2969
-2.6253 SEMANTIC -0.3000
-2.6253 STOP -0.2734
-1.3466 THE -0.2810
-2.0233 THIS -0.2969
-1.7222 TO -0.2810
-2.6253 YES -0.2712
-2.0233 YOUR -0.2969

\2-grams:
-0.3332 <s> MYRABOT 0.0000
-1.7482 <s> NO 0.0000
-1.7482 <s> YES 0.0000
-0.3010 ABORT PLEASE 0.0000
-0.3010 BASIC MODE 0.0000
-0.4771 BATHROOM PLEASE 0.0000
-0.7782 BATHROOM SAVE 0.0000
-0.4771 BEDROOM PLEASE 0.0000
-0.7782 BEDROOM SAVE 0.0000
-0.3010 BEER PLEASE 0.0000
-0.3010 CHOCOLATE PLEASE 0.0000
-0.3010 CLEANER PLEASE 0.0000
-0.3010 COOKIES PLEASE 0.0000
-0.3010 CRACKERS PLEASE 0.0000
-0.3010 CUP PLEASE 0.0000
-0.3010 FREE MODE 0.0000
-0.3010 GO TO 0.0000
-0.3010 GRASP THE -0.2126
-0.3010 GRASPING MODE 0.0000
-0.3010 IN YOUR 0.0000
-0.3010 IS THE -0.1362
-0.4771 KITCHEN PLEASE 0.0000
-0.7782 KITCHEN SAVE 0.0000
-0.3010 LIVING ROOM 0.0000
-0.3010 MAP PLEASE 0.0000
-0.3010 MILK PLEASE 0.0000
-0.3010 MIRROR MODE 0.0000
-0.3010 MODE PLEASE 0.0000
-0.3010 MOVE TO 0.0000
-1.7160 MYRABOT ABORT 0.0000
-1.7160 MYRABOT BASIC 0.0000
-1.7160 MYRABOT FREE 0.0000
-1.1139 MYRABOT GO 0.0000
-0.8709 MYRABOT GRASP 0.0000
-1.7160 MYRABOT GRASPING 0.0000
-1.7160 MYRABOT MIRROR 0.0000
-1.1139 MYRABOT MOVE 0.0000
-1.7160 MYRABOT SEMANTIC 0.0000
-1.7160 MYRABOT STOP 0.0000
-1.1139 MYRABOT THIS 0.0000
-0.3010 NAVIGATION MODE 0.0000
-0.3010 NO </s> -0.3010
-0.3010 PLEASE </s> -0.3010
-0.4771 ROOM PLEASE 0.0000
-0.7782 ROOM SAVE 0.0000
-0.3010 SAVE IN 0.0000
-0.3010 SEMANTIC NAVIGATION 0.0000
-0.3010 STOP PLEASE 0.0000
-1.1027 THE BATHROOM 0.0000
-1.1027 THE BEDROOM 0.0000
-1.5798 THE BEER 0.0000
-1.5798 THE CHOCOLATE 0.0000
-1.5798 THE CLEANER 0.0000
-1.5798 THE COOKIES 0.0000
-1.5798 THE CRACKERS 0.0000
-1.5798 THE CUP 0.0000
-1.1027 THE KITCHEN 0.0000
-1.1027 THE LIVING 0.0000
-1.5798 THE MILK 0.0000
-0.3010 THIS IS 0.0000
-0.3010 TO THE -0.1362
-0.3010 YES </s> -0.3010
-0.3010 YOUR MAP 0.0000

\3-grams:
-1.7160 <s> MYRABOT ABORT
-1.7160 <s> MYRABOT BASIC
-1.7160 <s> MYRABOT FREE
-1.1139 <s> MYRABOT GO
-0.8709 <s> MYRABOT GRASP
-1.7160 <s> MYRABOT GRASPING
-1.7160 <s> MYRABOT MIRROR
-1.1139 <s> MYRABOT MOVE
-1.7160 <s> MYRABOT SEMANTIC
-1.7160 <s> MYRABOT STOP
-1.1139 <s> MYRABOT THIS
-0.3010 <s> NO </s>
-0.3010 <s> YES </s>
-0.3010 ABORT PLEASE </s>
-0.3010 BASIC MODE PLEASE
-0.3010 BATHROOM PLEASE </s>
-0.3010 BATHROOM SAVE IN
-0.3010 BEDROOM PLEASE </s>
-0.3010 BEDROOM SAVE IN
-0.3010 BEER PLEASE </s>
-0.3010 CHOCOLATE PLEASE </s>
-0.3010 CLEANER PLEASE </s>
-0.3010 COOKIES PLEASE </s>
-0.3010 CRACKERS PLEASE </s>
-0.3010 CUP PLEASE </s>
-0.3010 FREE MODE PLEASE
-0.3010 GO TO THE
-1.1461 GRASP THE BEER
-1.1461 GRASP THE CHOCOLATE
-1.1461 GRASP THE CLEANER
-1.1461 GRASP THE COOKIES
-1.1461 GRASP THE CRACKERS
-1.1461 GRASP THE CUP
-1.1461 GRASP THE MILK
-0.3010 GRASPING MODE PLEASE
-0.3010 IN YOUR MAP
-0.9031 IS THE BATHROOM
-0.9031 IS THE BEDROOM
-0.9031 IS THE KITCHEN
-0.9031 IS THE LIVING
-0.3010 KITCHEN PLEASE </s>
-0.3010 KITCHEN SAVE IN
-0.4771 LIVING ROOM PLEASE
-0.7782 LIVING ROOM SAVE
-0.3010 MAP PLEASE </s>
-0.3010 MILK PLEASE </s>
-0.3010 MIRROR MODE PLEASE
-0.3010 MODE PLEASE </s>
-0.3010 MOVE TO THE
-0.3010 MYRABOT ABORT PLEASE
-0.3010 MYRABOT BASIC MODE
-0.3010 MYRABOT FREE MODE
-0.3010 MYRABOT GO TO
-0.3010 MYRABOT GRASP THE
-0.3010 MYRABOT GRASPING MODE
-0.3010 MYRABOT MIRROR MODE
-0.3010 MYRABOT MOVE TO
-0.3010 MYRABOT SEMANTIC NAVIGATION
-0.3010 MYRABOT STOP PLEASE
-0.3010 MYRABOT THIS IS
-0.3010 NAVIGATION MODE PLEASE
-0.3010 ROOM PLEASE </s>
-0.3010 ROOM SAVE IN
-0.3010 SAVE IN YOUR
-0.3010 SEMANTIC NAVIGATION MODE
-0.3010 STOP PLEASE </s>
-0.4771 THE BATHROOM PLEASE
-0.7782 THE BATHROOM SAVE
-0.4771 THE BEDROOM PLEASE
-0.7782 THE BEDROOM SAVE
-0.3010 THE BEER PLEASE
-0.3010 THE CHOCOLATE PLEASE
-0.3010 THE CLEANER PLEASE
-0.3010 THE COOKIES PLEASE
-0.3010 THE CRACKERS PLEASE
-0.3010 THE CUP PLEASE
-0.4771 THE KITCHEN PLEASE
-0.7782 THE KITCHEN SAVE
-0.3010 THE LIVING ROOM
-0.3010 THE MILK PLEASE
-0.3010 THIS IS THE
-0.9031 TO THE BATHROOM
-0.9031 TO THE BEDROOM
-0.9031 TO THE KITCHEN
-0.9031 TO THE LIVING
-0.3010 YOUR MAP PLEASE

\end\
